{
  "weights": [
    [
      -0.03404450147185639,
      -0.027750922203482395,
      -0.28297515700602355,
      -0.03491888571413521,
      -0.05530986986012434,
      -0.09071476843793158,
      -0.1171466532793476,
      0.03328544199642895,
      0.09600700592384145,
      -0.01174972320445533,
      0.2375590473995946,
      -0.03772804321563193,
      0.20981260534109455,
      0.03398769057238168,
      -0.06643886085386487
    ],
    [
      -0.026345474870597383,
      -0.02167964643237178,
      -0.12926471435813666,
      -0.017532362625438926,
      -0.054054809689191144,
      -0.11228168194835542,
      0.04690531946145102,
      0.04746208338267803,
      0.0694203616046244,
      0.048073926831240024,
      0.09682962519049239,
      0.10213727532742098,
      -0.046731256015980216,
      0.0444226144397495,
      0.0944911890668132
    ],
    [
      -0.020177028733275208,
      -0.009963539396874813,
      0.06654693615950874,
      0.007279710797195724,
      -0.122251907266502,
      -0.03564637950090706,
      0.13723148421467551,
      -0.0006416923407678879,
      0.08113903227818708,
      0.026500347586638565,
      0.019609053811865448,
      0.1152475577809951,
      -0.11263992341642963,
      0.026289484936643303,
      0.10503854786139558
    ],
    [
      0.00319193483086454,
      -0.000499424272241488,
      0.15449448659735623,
      0.00883446290819942,
      -0.06639329573810689,
      -0.011074048378302708,
      -0.01704498196147554,
      -0.025093984868547917,
      -0.08120104430833067,
      -0.02666599750797585,
      -0.05861145996600971,
      -0.04841394704308359,
      -0.010698314957166605,
      0.0022715539777668874,
      -0.005410181966819443
    ],
    [
      0.07486591684718266,
      0.059907574285134484,
      0.19135029356420172,
      0.03386756488745749,
      0.29182282656499126,
      0.25254588646074677,
      -0.0637002445926411,
      -0.05335390753668028,
      -0.1596541953885347,
      -0.03574517975807269,
      -0.30666550834679623,
      -0.12793537207420583,
      -0.03787481146325835,
      -0.10299262933049678,
      -0.14024190832817188
    ]
  ],
  "biases": [
    0.09355576733842846,
    0.07283286249500669,
    0.08540269821792071,
    -0.08118351009258938,
    -0.1706078179587664
  ],
  "featureNames": [
    "shareRate",
    "commentRate",
    "likeRate",
    "saveRate",
    "shareToLikeRatio",
    "commentToLikeRatio",
    "durationSeconds",
    "hashtagCount",
    "hasTrendingSound",
    "captionLength",
    "hasFollowerData",
    "followerTier",
    "viewsPerFollower",
    "weekdayPosted",
    "hourPosted"
  ],
  "numClasses": 5,
  "trainedAt": "2026-02-16T18:27:52.724Z",
  "accuracy": 0.31046195652173914,
  "confusionMatrix": [
    [
      177,
      52,
      150,
      0,
      0
    ],
    [
      113,
      86,
      164,
      0,
      0
    ],
    [
      108,
      64,
      192,
      0,
      0
    ],
    [
      64,
      39,
      122,
      0,
      0
    ],
    [
      46,
      10,
      83,
      0,
      2
    ]
  ]
}